digraph Tree {
node [shape=box, style="filled, rounded", color="black", fontname="helvetica"] ;
edge [fontname="helvetica"] ;
0 [label="Wind Speed <= 9.72\ngini = 0.5\nsamples = 1040\nvalue = [813.09, 667.84]\nclass = F", fillcolor="#fae8dc"] ;
1 [label="gini = 0.0\nsamples = 160\nvalue = [129.7, 0.0]\nclass = F", fillcolor="#e58139"] ;
0 -> 1 [labeldistance=2.5, labelangle=45, headlabel="True"] ;
2 [label="Wind Speed <= 23.6\ngini = 0.5\nsamples = 880\nvalue = [683.38, 667.84]\nclass = F", fillcolor="#fefcfa"] ;
0 -> 2 [labeldistance=2.5, labelangle=-45, headlabel="False"] ;
3 [label="Wind Speed <= 14.39\ngini = 0.5\nsamples = 765\nvalue = [597.26, 667.84]\nclass = i", fillcolor="#eaf5fc"] ;
2 -> 3 ;
4 [label="Temperature <= 64.2\ngini = 0.5\nsamples = 347\nvalue = [284.53, 242.85]\nclass = F", fillcolor="#fbede2"] ;
3 -> 4 ;
5 [label="Wind Speed <= 10.82\ngini = 0.0\nsamples = 174\nvalue = [144.57, 0.0]\nclass = F", fillcolor="#e58139"] ;
4 -> 5 ;
6 [label="gini = 0.0\nsamples = 38\nvalue = [31.27, 0.0]\nclass = F", fillcolor="#e58139"] ;
5 -> 6 ;
7 [label="gini = 0.0\nsamples = 136\nvalue = [113.3, 0.0]\nclass = F", fillcolor="#e58139"] ;
5 -> 7 ;
8 [label="Temperature <= 78.9\ngini = 0.46\nsamples = 173\nvalue = [139.96, 242.85]\nclass = i", fillcolor="#abd5f4"] ;
4 -> 8 ;
9 [label="Wind Speed <= 12.08\ngini = 0.49\nsamples = 162\nvalue = [133.81, 182.14]\nclass = i", fillcolor="#cae5f8"] ;
8 -> 9 ;
10 [label="Temperature <= 64.65\ngini = 0.49\nsamples = 88\nvalue = [77.41, 60.71]\nclass = F", fillcolor="#f9e4d4"] ;
9 -> 10 ;
11 [label="gini = 0.31\nsamples = 11\nvalue = [9.74, 40.48]\nclass = i", fillcolor="#69b5eb"] ;
10 -> 11 ;
12 [label="Temperature <= 70.8\ngini = 0.35\nsamples = 77\nvalue = [67.67, 20.24]\nclass = F", fillcolor="#eda774"] ;
10 -> 12 ;
13 [label="gini = -0.0\nsamples = 52\nvalue = [45.63, 0.0]\nclass = F", fillcolor="#e58139"] ;
12 -> 13 ;
14 [label="gini = 0.5\nsamples = 25\nvalue = [22.04, 20.24]\nclass = F", fillcolor="#fdf5ef"] ;
12 -> 14 ;
15 [label="Temperature <= 68.9\ngini = 0.43\nsamples = 74\nvalue = [56.39, 121.42]\nclass = i", fillcolor="#95cbf1"] ;
9 -> 15 ;
16 [label="gini = 0.28\nsamples = 33\nvalue = [25.12, 121.43]\nclass = i", fillcolor="#62b1ea"] ;
15 -> 16 ;
17 [label="gini = 0.0\nsamples = 41\nvalue = [31.27, 0.0]\nclass = F", fillcolor="#e58139"] ;
15 -> 17 ;
18 [label="gini = 0.17\nsamples = 11\nvalue = [6.15, 60.71]\nclass = i", fillcolor="#4da7e8"] ;
8 -> 18 ;
19 [label="Wind Speed <= 15.54\ngini = 0.49\nsamples = 418\nvalue = [312.73, 424.99]\nclass = i", fillcolor="#cbe5f8"] ;
3 -> 19 ;
20 [label="Temperature <= 72.3\ngini = 0.37\nsamples = 71\nvalue = [52.8, 161.9]\nclass = i", fillcolor="#7abded"] ;
19 -> 20 ;
21 [label="Temperature <= 52.45\ngini = 0.42\nsamples = 60\nvalue = [46.14, 20.24]\nclass = F", fillcolor="#f0b890"] ;
20 -> 21 ;
22 [label="gini = 0.37\nsamples = 8\nvalue = [6.66, 20.24]\nclass = i", fillcolor="#7abdee"] ;
21 -> 22 ;
23 [label="gini = -0.0\nsamples = 52\nvalue = [39.48, 0.0]\nclass = F", fillcolor="#e58139"] ;
21 -> 23 ;
24 [label="gini = 0.09\nsamples = 11\nvalue = [6.66, 141.66]\nclass = i", fillcolor="#42a2e6"] ;
20 -> 24 ;
25 [label="Temperature <= 67.45\ngini = 0.5\nsamples = 347\nvalue = [259.92, 263.09]\nclass = i", fillcolor="#fdfeff"] ;
19 -> 25 ;
26 [label="gini = -0.0\nsamples = 221\nvalue = [164.57, 0.0]\nclass = F", fillcolor="#e58139"] ;
25 -> 26 ;
27 [label="Temperature <= 79.7\ngini = 0.39\nsamples = 126\nvalue = [95.36, 263.09]\nclass = i", fillcolor="#81c1ee"] ;
25 -> 27 ;
28 [label="Temperature <= 68.55\ngini = 0.45\nsamples = 113\nvalue = [87.15, 161.9]\nclass = i", fillcolor="#a4d2f3"] ;
27 -> 28 ;
29 [label="gini = 0.3\nsamples = 34\nvalue = [27.17, 121.43]\nclass = i", fillcolor="#65b3eb"] ;
28 -> 29 ;
30 [label="Temperature <= 71.35\ngini = 0.48\nsamples = 79\nvalue = [59.98, 40.48]\nclass = F", fillcolor="#f7d6bf"] ;
28 -> 30 ;
31 [label="gini = 0.0\nsamples = 30\nvalue = [25.12, 0.0]\nclass = F", fillcolor="#e58139"] ;
30 -> 31 ;
32 [label="gini = 0.5\nsamples = 49\nvalue = [34.86, 40.48]\nclass = i", fillcolor="#e4f1fb"] ;
30 -> 32 ;
33 [label="gini = 0.14\nsamples = 13\nvalue = [8.2, 101.19]\nclass = i", fillcolor="#49a5e7"] ;
27 -> 33 ;
34 [label="Wind Speed <= 24.74\ngini = 0.0\nsamples = 115\nvalue = [86.13, 0.0]\nclass = F", fillcolor="#e58139"] ;
2 -> 34 ;
35 [label="gini = 0.0\nsamples = 25\nvalue = [18.97, 0.0]\nclass = F", fillcolor="#e58139"] ;
34 -> 35 ;
36 [label="gini = 0.0\nsamples = 90\nvalue = [67.16, 0.0]\nclass = F", fillcolor="#e58139"] ;
34 -> 36 ;
}